digraph Tree {
node [shape=box, style="filled, rounded", color="black", fontname=helvetica] ;
edge [fontname=helvetica] ;
0 [label=<Glucose &le; 127.5<br/>entropy = 0.931<br/>samples = 568<br/>value = [371, 197]<br/>class = 0>, fillcolor="#f3c4a2"] ;
1 [label=<Age &le; 27.5<br/>entropy = 0.719<br/>samples = 358<br/>value = [287, 71]<br/>class = 0>, fillcolor="#eba06a"] ;
0 -> 1 [labeldistance=2.5, labelangle=45, headlabel="True"] ;
2 [label=<BMI &le; 30.9<br/>entropy = 0.374<br/>samples = 180<br/>value = [167, 13]<br/>class = 0>, fillcolor="#e78b48"] ;
1 -> 2 ;
3 [label=<DiabetesPedigreeFunction &le; 0.672<br/>entropy = 0.077<br/>samples = 106<br/>value = [105, 1]<br/>class = 0>, fillcolor="#e5823b"] ;
2 -> 3 ;
4 [label=<entropy = 0.0<br/>samples = 92<br/>value = [92, 0]<br/>class = 0>, fillcolor="#e58139"] ;
3 -> 4 ;
5 [label=<entropy = 0.371<br/>samples = 14<br/>value = [13, 1]<br/>class = 0>, fillcolor="#e78b48"] ;
3 -> 5 ;
6 [label=<BMI &le; 45.4<br/>entropy = 0.639<br/>samples = 74<br/>value = [62, 12]<br/>class = 0>, fillcolor="#ea995f"] ;
2 -> 6 ;
7 [label=<BMI &le; 38.35<br/>entropy = 0.581<br/>samples = 72<br/>value = [62, 10]<br/>class = 0>, fillcolor="#e99559"] ;
6 -> 7 ;
8 [label=<SkinThickness &le; 40.5<br/>entropy = 0.691<br/>samples = 54<br/>value = [44, 10]<br/>class = 0>, fillcolor="#eb9e66"] ;
7 -> 8 ;
9 [label=<Insulin &le; 90.0<br/>entropy = 0.592<br/>samples = 49<br/>value = [42, 7]<br/>class = 0>, fillcolor="#e9965a"] ;
8 -> 9 ;
10 [label=<Glucose &le; 102.5<br/>entropy = 0.722<br/>samples = 35<br/>value = [28, 7]<br/>class = 0>, fillcolor="#eca06a"] ;
9 -> 10 ;
11 [label=<entropy = 0.402<br/>samples = 25<br/>value = [23, 2]<br/>class = 0>, fillcolor="#e78c4a"] ;
10 -> 11 ;
12 [label=<entropy = 1.0<br/>samples = 10<br/>value = [5, 5]<br/>class = 0>, fillcolor="#ffffff"] ;
10 -> 12 ;
13 [label=<entropy = 0.0<br/>samples = 14<br/>value = [14, 0]<br/>class = 0>, fillcolor="#e58139"] ;
9 -> 13 ;
14 [label=<entropy = 0.971<br/>samples = 5<br/>value = [2, 3]<br/>class = 1>, fillcolor="#bddef6"] ;
8 -> 14 ;
15 [label=<entropy = 0.0<br/>samples = 18<br/>value = [18, 0]<br/>class = 0>, fillcolor="#e58139"] ;
7 -> 15 ;
16 [label=<entropy = 0.0<br/>samples = 2<br/>value = [0, 2]<br/>class = 1>, fillcolor="#399de5"] ;
6 -> 16 ;
17 [label=<BMI &le; 26.35<br/>entropy = 0.911<br/>samples = 178<br/>value = [120, 58]<br/>class = 0>, fillcolor="#f2be99"] ;
1 -> 17 ;
18 [label=<BMI &le; 9.65<br/>entropy = 0.187<br/>samples = 35<br/>value = [34, 1]<br/>class = 0>, fillcolor="#e6853f"] ;
17 -> 18 ;
19 [label=<entropy = 0.0<br/>samples = 1<br/>value = [0, 1]<br/>class = 1>, fillcolor="#399de5"] ;
18 -> 19 ;
20 [label=<entropy = 0.0<br/>samples = 34<br/>value = [34, 0]<br/>class = 0>, fillcolor="#e58139"] ;
18 -> 20 ;
21 [label=<Glucose &le; 99.5<br/>entropy = 0.97<br/>samples = 143<br/>value = [86, 57]<br/>class = 0>, fillcolor="#f6d5bc"] ;
17 -> 21 ;
22 [label=<Insulin &le; 153.0<br/>entropy = 0.667<br/>samples = 46<br/>value = [38, 8]<br/>class = 0>, fillcolor="#ea9c63"] ;
21 -> 22 ;
23 [label=<Glucose &le; 28.5<br/>entropy = 0.575<br/>samples = 44<br/>value = [38, 6]<br/>class = 0>, fillcolor="#e99558"] ;
22 -> 23 ;
24 [label=<entropy = 0.0<br/>samples = 2<br/>value = [0, 2]<br/>class = 1>, fillcolor="#399de5"] ;
23 -> 24 ;
25 [label=<DiabetesPedigreeFunction &le; 1.123<br/>entropy = 0.454<br/>samples = 42<br/>value = [38, 4]<br/>class = 0>, fillcolor="#e88e4e"] ;
23 -> 25 ;
26 [label=<Pregnancies &le; 9.5<br/>entropy = 0.378<br/>samples = 41<br/>value = [38, 3]<br/>class = 0>, fillcolor="#e78b49"] ;
25 -> 26 ;
27 [label=<DiabetesPedigreeFunction &le; 0.182<br/>entropy = 0.187<br/>samples = 35<br/>value = [34, 1]<br/>class = 0>, fillcolor="#e6853f"] ;
26 -> 27 ;
28 [label=<entropy = 0.722<br/>samples = 5<br/>value = [4, 1]<br/>class = 0>, fillcolor="#eca06a"] ;
27 -> 28 ;
29 [label=<entropy = 0.0<br/>samples = 30<br/>value = [30, 0]<br/>class = 0>, fillcolor="#e58139"] ;
27 -> 29 ;
30 [label=<entropy = 0.918<br/>samples = 6<br/>value = [4, 2]<br/>class = 0>, fillcolor="#f2c09c"] ;
26 -> 30 ;
31 [label=<entropy = 0.0<br/>samples = 1<br/>value = [0, 1]<br/>class = 1>, fillcolor="#399de5"] ;
25 -> 31 ;
32 [label=<entropy = 0.0<br/>samples = 2<br/>value = [0, 2]<br/>class = 1>, fillcolor="#399de5"] ;
22 -> 32 ;
33 [label=<DiabetesPedigreeFunction &le; 0.204<br/>entropy = 1.0<br/>samples = 97<br/>value = [48, 49]<br/>class = 1>, fillcolor="#fbfdfe"] ;
21 -> 33 ;
34 [label=<entropy = 0.722<br/>samples = 15<br/>value = [12, 3]<br/>class = 0>, fillcolor="#eca06a"] ;
33 -> 34 ;
35 [label=<Age &le; 47.5<br/>entropy = 0.989<br/>samples = 82<br/>value = [36, 46]<br/>class = 1>, fillcolor="#d4eaf9"] ;
33 -> 35 ;
36 [label=<Pregnancies &le; 6.5<br/>entropy = 0.962<br/>samples = 70<br/>value = [27, 43]<br/>class = 1>, fillcolor="#b5dbf5"] ;
35 -> 36 ;
37 [label=<Glucose &le; 111.5<br/>entropy = 0.999<br/>samples = 46<br/>value = [22, 24]<br/>class = 1>, fillcolor="#eff7fd"] ;
36 -> 37 ;
38 [label=<entropy = 0.811<br/>samples = 16<br/>value = [12, 4]<br/>class = 0>, fillcolor="#eeab7b"] ;
37 -> 38 ;
39 [label=<Glucose &le; 116.5<br/>entropy = 0.918<br/>samples = 30<br/>value = [10, 20]<br/>class = 1>, fillcolor="#9ccef2"] ;
37 -> 39 ;
40 [label=<entropy = 0.0<br/>samples = 6<br/>value = [0, 6]<br/>class = 1>, fillcolor="#399de5"] ;
39 -> 40 ;
41 [label=<entropy = 0.98<br/>samples = 24<br/>value = [10, 14]<br/>class = 1>, fillcolor="#c6e3f8"] ;
39 -> 41 ;
42 [label=<entropy = 0.738<br/>samples = 24<br/>value = [5, 19]<br/>class = 1>, fillcolor="#6db7ec"] ;
36 -> 42 ;
43 [label=<entropy = 0.811<br/>samples = 12<br/>value = [9, 3]<br/>class = 0>, fillcolor="#eeab7b"] ;
35 -> 43 ;
44 [label=<BMI &le; 29.95<br/>entropy = 0.971<br/>samples = 210<br/>value = [84, 126]<br/>class = 1>, fillcolor="#bddef6"] ;
0 -> 44 [labeldistance=2.5, labelangle=-45, headlabel="False"] ;
45 [label=<Pregnancies &le; 1.5<br/>entropy = 0.825<br/>samples = 58<br/>value = [43, 15]<br/>class = 0>, fillcolor="#eead7e"] ;
44 -> 45 ;
46 [label=<entropy = 0.0<br/>samples = 14<br/>value = [14, 0]<br/>class = 0>, fillcolor="#e58139"] ;
45 -> 46 ;
47 [label=<BloodPressure &le; 73.0<br/>entropy = 0.926<br/>samples = 44<br/>value = [29, 15]<br/>class = 0>, fillcolor="#f2c29f"] ;
45 -> 47 ;
48 [label=<entropy = 0.982<br/>samples = 19<br/>value = [8, 11]<br/>class = 1>, fillcolor="#c9e4f8"] ;
47 -> 48 ;
49 [label=<entropy = 0.634<br/>samples = 25<br/>value = [21, 4]<br/>class = 0>, fillcolor="#ea995f"] ;
47 -> 49 ;
50 [label=<Glucose &le; 155.5<br/>entropy = 0.841<br/>samples = 152<br/>value = [41, 111]<br/>class = 1>, fillcolor="#82c1ef"] ;
44 -> 50 ;
51 [label=<BloodPressure &le; 61.0<br/>entropy = 0.962<br/>samples = 83<br/>value = [32, 51]<br/>class = 1>, fillcolor="#b5daf5"] ;
50 -> 51 ;
52 [label=<entropy = 0.0<br/>samples = 13<br/>value = [0, 13]<br/>class = 1>, fillcolor="#399de5"] ;
51 -> 52 ;
53 [label=<Age &le; 30.5<br/>entropy = 0.995<br/>samples = 70<br/>value = [32, 38]<br/>class = 1>, fillcolor="#e0f0fb"] ;
51 -> 53 ;
54 [label=<Glucose &le; 146.5<br/>entropy = 0.918<br/>samples = 30<br/>value = [20, 10]<br/>class = 0>, fillcolor="#f2c09c"] ;
53 -> 54 ;
55 [label=<entropy = 0.988<br/>samples = 23<br/>value = [13, 10]<br/>class = 0>, fillcolor="#f9e2d1"] ;
54 -> 55 ;
56 [label=<entropy = 0.0<br/>samples = 7<br/>value = [7, 0]<br/>class = 0>, fillcolor="#e58139"] ;
54 -> 56 ;
57 [label=<BloodPressure &le; 90.0<br/>entropy = 0.881<br/>samples = 40<br/>value = [12, 28]<br/>class = 1>, fillcolor="#8ec7f0"] ;
53 -> 57 ;
58 [label=<DiabetesPedigreeFunction &le; 0.283<br/>entropy = 0.937<br/>samples = 34<br/>value = [12, 22]<br/>class = 1>, fillcolor="#a5d2f3"] ;
57 -> 58 ;
59 [label=<entropy = 0.946<br/>samples = 11<br/>value = [7, 4]<br/>class = 0>, fillcolor="#f4c9aa"] ;
58 -> 59 ;
60 [label=<entropy = 0.755<br/>samples = 23<br/>value = [5, 18]<br/>class = 1>, fillcolor="#70b8ec"] ;
58 -> 60 ;
61 [label=<entropy = 0.0<br/>samples = 6<br/>value = [0, 6]<br/>class = 1>, fillcolor="#399de5"] ;
57 -> 61 ;
62 [label=<Glucose &le; 163.5<br/>entropy = 0.559<br/>samples = 69<br/>value = [9, 60]<br/>class = 1>, fillcolor="#57ace9"] ;
50 -> 62 ;
63 [label=<entropy = 0.0<br/>samples = 16<br/>value = [0, 16]<br/>class = 1>, fillcolor="#399de5"] ;
62 -> 63 ;
64 [label=<Glucose &le; 165.5<br/>entropy = 0.657<br/>samples = 53<br/>value = [9, 44]<br/>class = 1>, fillcolor="#61b1ea"] ;
62 -> 64 ;
65 [label=<entropy = 0.971<br/>samples = 5<br/>value = [3, 2]<br/>class = 0>, fillcolor="#f6d5bd"] ;
64 -> 65 ;
66 [label=<DiabetesPedigreeFunction &le; 0.307<br/>entropy = 0.544<br/>samples = 48<br/>value = [6, 42]<br/>class = 1>, fillcolor="#55abe9"] ;
64 -> 66 ;
67 [label=<entropy = 0.863<br/>samples = 14<br/>value = [4, 10]<br/>class = 1>, fillcolor="#88c4ef"] ;
66 -> 67 ;
68 [label=<DiabetesPedigreeFunction &le; 1.116<br/>entropy = 0.323<br/>samples = 34<br/>value = [2, 32]<br/>class = 1>, fillcolor="#45a3e7"] ;
66 -> 68 ;
69 [label=<entropy = 0.0<br/>samples = 28<br/>value = [0, 28]<br/>class = 1>, fillcolor="#399de5"] ;
68 -> 69 ;
70 [label=<entropy = 0.918<br/>samples = 6<br/>value = [2, 4]<br/>class = 1>, fillcolor="#9ccef2"] ;
68 -> 70 ;
}
